digraph Tree {
node [shape=box] ;
0 [label="X[51] <= 0.057\ngini = 0.478\nsamples = 2300\nvalue = [1389, 911]"] ;
1 [label="X[6] <= 0.025\ngini = 0.254\nsamples = 1275\nvalue = [1085, 190]"] ;
0 -> 1 [labeldistance=2.5, labelangle=45, headlabel="True"] ;
2 [label="X[23] <= 0.01\ngini = 0.186\nsamples = 1194\nvalue = [1070, 124]"] ;
1 -> 2 ;
3 [label="X[4] <= 1.165\ngini = 0.145\nsamples = 1142\nvalue = [1052, 90]"] ;
2 -> 3 ;
4 [label="X[21] <= 0.155\ngini = 0.121\nsamples = 1085\nvalue = [1015, 70]"] ;
3 -> 4 ;
5 [label="gini = 0.113\nsamples = 1077\nvalue = [1012, 65]"] ;
4 -> 5 ;
6 [label="gini = 0.469\nsamples = 8\nvalue = [3, 5]"] ;
4 -> 6 ;
7 [label="X[20] <= 0.51\ngini = 0.456\nsamples = 57\nvalue = [37, 20]"] ;
3 -> 7 ;
8 [label="gini = 0.272\nsamples = 37\nvalue = [31, 6]"] ;
7 -> 8 ;
9 [label="gini = 0.42\nsamples = 20\nvalue = [6, 14]"] ;
7 -> 9 ;
10 [label="X[52] <= 0.053\ngini = 0.453\nsamples = 52\nvalue = [18, 34]"] ;
2 -> 10 ;
11 [label="X[54] <= 4.186\ngini = 0.363\nsamples = 21\nvalue = [16, 5]"] ;
10 -> 11 ;
12 [label="gini = 0.117\nsamples = 16\nvalue = [15, 1]"] ;
11 -> 12 ;
13 [label="gini = 0.32\nsamples = 5\nvalue = [1, 4]"] ;
11 -> 13 ;
14 [label="X[7] <= 0.465\ngini = 0.121\nsamples = 31\nvalue = [2, 29]"] ;
10 -> 14 ;
15 [label="gini = 0.0\nsamples = 29\nvalue = [0, 29]"] ;
14 -> 15 ;
16 [label="gini = 0.0\nsamples = 2\nvalue = [2, 0]"] ;
14 -> 16 ;
17 [label="X[26] <= 0.15\ngini = 0.302\nsamples = 81\nvalue = [15, 66]"] ;
1 -> 17 ;
18 [label="X[47] <= 0.075\ngini = 0.193\nsamples = 74\nvalue = [8, 66]"] ;
17 -> 18 ;
19 [label="X[45] <= 0.145\ngini = 0.153\nsamples = 72\nvalue = [6, 66]"] ;
18 -> 19 ;
20 [label="gini = 0.108\nsamples = 70\nvalue = [4, 66]"] ;
19 -> 20 ;
21 [label="gini = 0.0\nsamples = 2\nvalue = [2, 0]"] ;
19 -> 21 ;
22 [label="gini = 0.0\nsamples = 2\nvalue = [2, 0]"] ;
18 -> 22 ;
23 [label="gini = 0.0\nsamples = 7\nvalue = [7, 0]"] ;
17 -> 23 ;
24 [label="X[54] <= 2.292\ngini = 0.417\nsamples = 1025\nvalue = [304, 721]"] ;
0 -> 24 [labeldistance=2.5, labelangle=-45, headlabel="False"] ;
25 [label="X[6] <= 0.045\ngini = 0.464\nsamples = 341\nvalue = [216, 125]"] ;
24 -> 25 ;
26 [label="X[15] <= 0.29\ngini = 0.398\nsamples = 295\nvalue = [214, 81]"] ;
25 -> 26 ;
27 [label="X[7] <= 0.545\ngini = 0.28\nsamples = 232\nvalue = [193, 39]"] ;
26 -> 27 ;
28 [label="gini = 0.222\nsamples = 220\nvalue = [192, 28]"] ;
27 -> 28 ;
29 [label="gini = 0.153\nsamples = 12\nvalue = [1, 11]"] ;
27 -> 29 ;
30 [label="X[51] <= 0.468\ngini = 0.444\nsamples = 63\nvalue = [21, 42]"] ;
26 -> 30 ;
31 [label="gini = 0.499\nsamples = 44\nvalue = [21, 23]"] ;
30 -> 31 ;
32 [label="gini = 0.0\nsamples = 19\nvalue = [0, 19]"] ;
30 -> 32 ;
33 [label="X[29] <= 0.615\ngini = 0.083\nsamples = 46\nvalue = [2, 44]"] ;
25 -> 33 ;
34 [label="X[40] <= 0.125\ngini = 0.043\nsamples = 45\nvalue = [1, 44]"] ;
33 -> 34 ;
35 [label="gini = 0.0\nsamples = 44\nvalue = [0, 44]"] ;
34 -> 35 ;
36 [label="gini = 0.0\nsamples = 1\nvalue = [1, 0]"] ;
34 -> 36 ;
37 [label="gini = 0.0\nsamples = 1\nvalue = [1, 0]"] ;
33 -> 37 ;
38 [label="X[24] <= 0.39\ngini = 0.224\nsamples = 684\nvalue = [88, 596]"] ;
24 -> 38 ;
39 [label="X[45] <= 0.17\ngini = 0.153\nsamples = 646\nvalue = [54, 592]"] ;
38 -> 39 ;
40 [label="X[41] <= 0.19\ngini = 0.127\nsamples = 632\nvalue = [43, 589]"] ;
39 -> 40 ;
41 [label="gini = 0.109\nsamples = 625\nvalue = [36, 589]"] ;
40 -> 41 ;
42 [label="gini = 0.0\nsamples = 7\nvalue = [7, 0]"] ;
40 -> 42 ;
43 [label="X[23] <= 0.43\ngini = 0.337\nsamples = 14\nvalue = [11, 3]"] ;
39 -> 43 ;
44 [label="gini = 0.0\nsamples = 11\nvalue = [11, 0]"] ;
43 -> 44 ;
45 [label="gini = 0.0\nsamples = 3\nvalue = [0, 3]"] ;
43 -> 45 ;
46 [label="X[22] <= 1.275\ngini = 0.188\nsamples = 38\nvalue = [34, 4]"] ;
38 -> 46 ;
47 [label="X[6] <= 0.075\ngini = 0.105\nsamples = 36\nvalue = [34, 2]"] ;
46 -> 47 ;
48 [label="gini = 0.0\nsamples = 34\nvalue = [34, 0]"] ;
47 -> 48 ;
49 [label="gini = 0.0\nsamples = 2\nvalue = [0, 2]"] ;
47 -> 49 ;
50 [label="gini = 0.0\nsamples = 2\nvalue = [0, 2]"] ;
46 -> 50 ;
}